digraph Tree {
node [shape=box, style="filled, rounded", color="black", fontname=helvetica] ;
edge [fontname=helvetica] ;
0 [label="X[1] <= 44.5\nentropy = 0.81\nsamples = 15556\nvalue = [11727, 3829]", fillcolor="#edaa7a"] ;
1 [label="X[0] <= 11.5\nentropy = 1.0\nsamples = 3837\nvalue = [1872, 1965]", fillcolor="#f6fafe"] ;
0 -> 1 [labeldistance=2.5, labelangle=45, headlabel="True"] ;
2 [label="X[0] <= 6.5\nentropy = 0.98\nsamples = 2904\nvalue = [1682, 1222]", fillcolor="#f8ddc9"] ;
1 -> 2 ;
3 [label="X[1] <= 39.5\nentropy = 0.84\nsamples = 765\nvalue = [557, 208]", fillcolor="#efb083"] ;
2 -> 3 ;
4 [label="X[0] <= 5.5\nentropy = 0.93\nsamples = 429\nvalue = [280, 149]", fillcolor="#f3c4a2"] ;
3 -> 4 ;
5 [label="X[2] <= 7.5\nentropy = 0.85\nsamples = 248\nvalue = [179, 69]", fillcolor="#efb285"] ;
4 -> 5 ;
6 [label="X[3] <= 1100.0\nentropy = 1.0\nsamples = 23\nvalue = [11, 12]", fillcolor="#eff7fd"] ;
5 -> 6 ;
7 [label="entropy = 0.95\nsamples = 11\nvalue = [4, 7]", fillcolor="#aad5f4"] ;
6 -> 7 ;
8 [label="entropy = 0.98\nsamples = 12\nvalue = [7, 5]", fillcolor="#f8dbc6"] ;
6 -> 8 ;
9 [label="X[2] <= 16.5\nentropy = 0.82\nsamples = 225\nvalue = [168, 57]", fillcolor="#eeac7c"] ;
5 -> 9 ;
10 [label="entropy = 0.27\nsamples = 22\nvalue = [21, 1]", fillcolor="#e68742"] ;
9 -> 10 ;
11 [label="entropy = 0.85\nsamples = 203\nvalue = [147, 56]", fillcolor="#efb184"] ;
9 -> 11 ;
12 [label="X[1] <= 36.5\nentropy = 0.99\nsamples = 181\nvalue = [101, 80]", fillcolor="#fae5d6"] ;
4 -> 12 ;
13 [label="X[4] <= 4.5\nentropy = 0.97\nsamples = 138\nvalue = [82, 56]", fillcolor="#f7d7c0"] ;
12 -> 13 ;
14 [label="entropy = 1.0\nsamples = 57\nvalue = [29, 28]", fillcolor="#fefbf8"] ;
13 -> 14 ;
15 [label="entropy = 0.93\nsamples = 81\nvalue = [53, 28]", fillcolor="#f3c4a2"] ;
13 -> 15 ;
16 [label="X[4] <= 6.5\nentropy = 0.99\nsamples = 43\nvalue = [19, 24]", fillcolor="#d6ebfa"] ;
12 -> 16 ;
17 [label="entropy = 0.94\nsamples = 31\nvalue = [11, 20]", fillcolor="#a6d3f3"] ;
16 -> 17 ;
18 [label="entropy = 0.92\nsamples = 12\nvalue = [8, 4]", fillcolor="#f2c09c"] ;
16 -> 18 ;
19 [label="X[0] <= 2.5\nentropy = 0.67\nsamples = 336\nvalue = [277, 59]", fillcolor="#eb9c63"] ;
3 -> 19 ;
20 [label="entropy = 0.0\nsamples = 14\nvalue = [14, 0]", fillcolor="#e58139"] ;
19 -> 20 ;
21 [label="X[4] <= 8.5\nentropy = 0.69\nsamples = 322\nvalue = [263, 59]", fillcolor="#eb9d65"] ;
19 -> 21 ;
22 [label="X[2] <= 31.5\nentropy = 0.65\nsamples = 273\nvalue = [228, 45]", fillcolor="#ea9a60"] ;
21 -> 22 ;
23 [label="entropy = 0.55\nsamples = 141\nvalue = [123, 18]", fillcolor="#e99356"] ;
22 -> 23 ;
24 [label="entropy = 0.73\nsamples = 132\nvalue = [105, 27]", fillcolor="#eca16c"] ;
22 -> 24 ;
25 [label="X[2] <= 18.0\nentropy = 0.86\nsamples = 49\nvalue = [35, 14]", fillcolor="#efb388"] ;
21 -> 25 ;
26 [label="entropy = 0.41\nsamples = 12\nvalue = [11, 1]", fillcolor="#e78c4b"] ;
25 -> 26 ;
27 [label="entropy = 0.94\nsamples = 37\nvalue = [24, 13]", fillcolor="#f3c5a4"] ;
25 -> 27 ;
28 [label="X[1] <= 39.5\nentropy = 1.0\nsamples = 2139\nvalue = [1125, 1014]", fillcolor="#fcf3eb"] ;
2 -> 28 ;
29 [label="X[0] <= 9.5\nentropy = 1.0\nsamples = 1350\nvalue = [627, 723]", fillcolor="#e5f2fc"] ;
28 -> 29 ;
30 [label="X[0] <= 7.5\nentropy = 1.0\nsamples = 932\nvalue = [474, 458]", fillcolor="#fefbf8"] ;
29 -> 30 ;
31 [label="X[3] <= 6528.82\nentropy = 0.98\nsamples = 235\nvalue = [135, 100]", fillcolor="#f8decc"] ;
30 -> 31 ;
32 [label="entropy = 0.99\nsamples = 219\nvalue = [122, 97]", fillcolor="#fae5d6"] ;
31 -> 32 ;
33 [label="entropy = 0.7\nsamples = 16\nvalue = [13, 3]", fillcolor="#eb9e67"] ;
31 -> 33 ;
34 [label="X[2] <= 52.5\nentropy = 1.0\nsamples = 697\nvalue = [339, 358]", fillcolor="#f4fafe"] ;
30 -> 34 ;
35 [label="entropy = 1.0\nsamples = 666\nvalue = [318, 348]", fillcolor="#eef7fd"] ;
34 -> 35 ;
36 [label="entropy = 0.91\nsamples = 31\nvalue = [21, 10]", fillcolor="#f1bd97"] ;
34 -> 36 ;
37 [label="X[4] <= 8.5\nentropy = 0.95\nsamples = 418\nvalue = [153, 265]", fillcolor="#abd6f4"] ;
29 -> 37 ;
38 [label="X[4] <= 3.5\nentropy = 0.96\nsamples = 374\nvalue = [144, 230]", fillcolor="#b5daf5"] ;
37 -> 38 ;
39 [label="entropy = 0.87\nsamples = 73\nvalue = [21, 52]", fillcolor="#89c5f0"] ;
38 -> 39 ;
40 [label="entropy = 0.98\nsamples = 301\nvalue = [123, 178]", fillcolor="#c2e1f7"] ;
38 -> 40 ;
41 [label="X[2] <= 42.5\nentropy = 0.73\nsamples = 44\nvalue = [9, 35]", fillcolor="#6cb6ec"] ;
37 -> 41 ;
42 [label="entropy = 0.92\nsamples = 27\nvalue = [9, 18]", fillcolor="#9ccef2"] ;
41 -> 42 ;
43 [label="entropy = 0.0\nsamples = 17\nvalue = [0, 17]", fillcolor="#399de5"] ;
41 -> 43 ;
44 [label="X[3] <= 2440.0\nentropy = 0.95\nsamples = 789\nvalue = [498, 291]", fillcolor="#f4cbad"] ;
28 -> 44 ;
45 [label="X[3] <= 1018.77\nentropy = 0.97\nsamples = 576\nvalue = [346, 230]", fillcolor="#f6d5bd"] ;
44 -> 45 ;
46 [label="X[0] <= 10.5\nentropy = 0.96\nsamples = 520\nvalue = [319, 201]", fillcolor="#f5d0b6"] ;
45 -> 46 ;
47 [label="entropy = 0.95\nsamples = 453\nvalue = [284, 169]", fillcolor="#f4ccaf"] ;
46 -> 47 ;
48 [label="entropy = 1.0\nsamples = 67\nvalue = [35, 32]", fillcolor="#fdf4ee"] ;
46 -> 48 ;
49 [label="X[3] <= 1410.0\nentropy = 1.0\nsamples = 56\nvalue = [27, 29]", fillcolor="#f1f8fd"] ;
45 -> 49 ;
50 [label="entropy = 0.81\nsamples = 16\nvalue = [4, 12]", fillcolor="#7bbeee"] ;
49 -> 50 ;
51 [label="entropy = 0.98\nsamples = 40\nvalue = [23, 17]", fillcolor="#f8decb"] ;
49 -> 51 ;
52 [label="X[0] <= 9.5\nentropy = 0.86\nsamples = 213\nvalue = [152, 61]", fillcolor="#efb488"] ;
44 -> 52 ;
53 [label="X[4] <= 4.5\nentropy = 0.75\nsamples = 148\nvalue = [116, 32]", fillcolor="#eca470"] ;
52 -> 53 ;
54 [label="entropy = 0.56\nsamples = 61\nvalue = [53, 8]", fillcolor="#e99457"] ;
53 -> 54 ;
55 [label="entropy = 0.85\nsamples = 87\nvalue = [63, 24]", fillcolor="#efb184"] ;
53 -> 55 ;
56 [label="X[3] <= 9900.0\nentropy = 0.99\nsamples = 65\nvalue = [36, 29]", fillcolor="#fae7d9"] ;
52 -> 56 ;
57 [label="entropy = 0.97\nsamples = 47\nvalue = [28, 19]", fillcolor="#f7d7bf"] ;
56 -> 57 ;
58 [label="entropy = 0.99\nsamples = 18\nvalue = [8, 10]", fillcolor="#d7ebfa"] ;
56 -> 58 ;
59 [label="X[0] <= 18.5\nentropy = 0.73\nsamples = 933\nvalue = [190, 743]", fillcolor="#6cb6ec"] ;
1 -> 59 ;
60 [label="X[0] <= 14.5\nentropy = 0.78\nsamples = 814\nvalue = [190, 624]", fillcolor="#75bbed"] ;
59 -> 60 ;
61 [label="X[1] <= 39.5\nentropy = 0.86\nsamples = 561\nvalue = [158, 403]", fillcolor="#87c3ef"] ;
60 -> 61 ;
62 [label="X[0] <= 13.5\nentropy = 0.78\nsamples = 361\nvalue = [83, 278]", fillcolor="#74baed"] ;
61 -> 62 ;
63 [label="X[2] <= 3.5\nentropy = 0.81\nsamples = 275\nvalue = [69, 206]", fillcolor="#7bbeee"] ;
62 -> 63 ;
64 [label="entropy = 0.39\nsamples = 13\nvalue = [1, 12]", fillcolor="#49a5e7"] ;
63 -> 64 ;
65 [label="entropy = 0.83\nsamples = 262\nvalue = [68, 194]", fillcolor="#7ebfee"] ;
63 -> 65 ;
66 [label="X[2] <= 40.5\nentropy = 0.64\nsamples = 86\nvalue = [14, 72]", fillcolor="#5fb0ea"] ;
62 -> 66 ;
67 [label="entropy = 0.75\nsamples = 66\nvalue = [14, 52]", fillcolor="#6eb7ec"] ;
66 -> 67 ;
68 [label="entropy = 0.0\nsamples = 20\nvalue = [0, 20]", fillcolor="#399de5"] ;
66 -> 68 ;
69 [label="X[2] <= 13.0\nentropy = 0.95\nsamples = 200\nvalue = [75, 125]", fillcolor="#b0d8f5"] ;
61 -> 69 ;
70 [label="X[4] <= 7.5\nentropy = 0.5\nsamples = 27\nvalue = [3, 24]", fillcolor="#52a9e8"] ;
69 -> 70 ;
71 [label="entropy = 0.0\nsamples = 14\nvalue = [0, 14]", fillcolor="#399de5"] ;
70 -> 71 ;
72 [label="entropy = 0.78\nsamples = 13\nvalue = [3, 10]", fillcolor="#74baed"] ;
70 -> 72 ;
73 [label="X[2] <= 20.5\nentropy = 0.98\nsamples = 173\nvalue = [72, 101]", fillcolor="#c6e3f8"] ;
69 -> 73 ;
74 [label="entropy = 0.99\nsamples = 25\nvalue = [14, 11]", fillcolor="#f9e4d5"] ;
73 -> 74 ;
75 [label="entropy = 0.97\nsamples = 148\nvalue = [58, 90]", fillcolor="#b9dcf6"] ;
73 -> 75 ;
76 [label="X[1] <= 38.5\nentropy = 0.55\nsamples = 253\nvalue = [32, 221]", fillcolor="#56abe9"] ;
60 -> 76 ;
77 [label="X[3] <= 1960.0\nentropy = 0.35\nsamples = 150\nvalue = [10, 140]", fillcolor="#47a4e7"] ;
76 -> 77 ;
78 [label="X[3] <= 0.01\nentropy = 0.17\nsamples = 116\nvalue = [3, 113]", fillcolor="#3ea0e6"] ;
77 -> 78 ;
79 [label="entropy = 0.24\nsamples = 75\nvalue = [3, 72]", fillcolor="#41a1e6"] ;
78 -> 79 ;
80 [label="entropy = 0.0\nsamples = 41\nvalue = [0, 41]", fillcolor="#399de5"] ;
78 -> 80 ;
81 [label="X[4] <= 4.5\nentropy = 0.73\nsamples = 34\nvalue = [7, 27]", fillcolor="#6cb6ec"] ;
77 -> 81 ;
82 [label="entropy = 0.92\nsamples = 18\nvalue = [6, 12]", fillcolor="#9ccef2"] ;
81 -> 82 ;
83 [label="entropy = 0.34\nsamples = 16\nvalue = [1, 15]", fillcolor="#46a4e7"] ;
81 -> 83 ;
84 [label="X[2] <= 50.5\nentropy = 0.75\nsamples = 103\nvalue = [22, 81]", fillcolor="#6fb8ec"] ;
76 -> 84 ;
85 [label="X[4] <= 6.5\nentropy = 0.81\nsamples = 88\nvalue = [22, 66]", fillcolor="#7bbeee"] ;
84 -> 85 ;
86 [label="entropy = 0.6\nsamples = 41\nvalue = [6, 35]", fillcolor="#5baee9"] ;
85 -> 86 ;
87 [label="entropy = 0.93\nsamples = 47\nvalue = [16, 31]", fillcolor="#9fd0f2"] ;
85 -> 87 ;
88 [label="entropy = 0.0\nsamples = 15\nvalue = [0, 15]", fillcolor="#399de5"] ;
84 -> 88 ;
89 [label="entropy = 0.0\nsamples = 119\nvalue = [0, 119]", fillcolor="#399de5"] ;
59 -> 89 ;
90 [label="X[0] <= 10.5\nentropy = 0.63\nsamples = 11719\nvalue = [9855, 1864]", fillcolor="#ea995e"] ;
0 -> 90 [labeldistance=2.5, labelangle=-45, headlabel="False"] ;
91 [label="X[0] <= 7.5\nentropy = 0.51\nsamples = 9082\nvalue = [8058, 1024]", fillcolor="#e89152"] ;
90 -> 91 ;
92 [label="X[1] <= 45.5\nentropy = 0.37\nsamples = 4616\nvalue = [4287, 329]", fillcolor="#e78b48"] ;
91 -> 92 ;
93 [label="entropy = 0.0\nsamples = 151\nvalue = [151, 0]", fillcolor="#e58139"] ;
92 -> 93 ;
94 [label="X[0] <= 4.5\nentropy = 0.38\nsamples = 4465\nvalue = [4136, 329]", fillcolor="#e78b49"] ;
92 -> 94 ;
95 [label="X[1] <= 46.5\nentropy = 0.25\nsamples = 983\nvalue = [943, 40]", fillcolor="#e68641"] ;
94 -> 95 ;
96 [label="entropy = 0.0\nsamples = 28\nvalue = [28, 0]", fillcolor="#e58139"] ;
95 -> 96 ;
97 [label="X[1] <= 69.5\nentropy = 0.25\nsamples = 955\nvalue = [915, 40]", fillcolor="#e68742"] ;
95 -> 97 ;
98 [label="entropy = 0.27\nsamples = 782\nvalue = [746, 36]", fillcolor="#e68743"] ;
97 -> 98 ;
99 [label="entropy = 0.16\nsamples = 173\nvalue = [169, 4]", fillcolor="#e6843e"] ;
97 -> 99 ;
100 [label="X[1] <= 53.5\nentropy = 0.41\nsamples = 3482\nvalue = [3193, 289]", fillcolor="#e78c4b"] ;
94 -> 100 ;
101 [label="X[4] <= 9.5\nentropy = 0.35\nsamples = 870\nvalue = [813, 57]", fillcolor="#e78a47"] ;
100 -> 101 ;
102 [label="entropy = 0.32\nsamples = 767\nvalue = [722, 45]", fillcolor="#e78945"] ;
101 -> 102 ;
103 [label="entropy = 0.52\nsamples = 103\nvalue = [91, 12]", fillcolor="#e89253"] ;
101 -> 103 ;
104 [label="X[1] <= 55.5\nentropy = 0.43\nsamples = 2612\nvalue = [2380, 232]", fillcolor="#e88d4c"] ;
100 -> 104 ;
105 [label="entropy = 0.55\nsamples = 497\nvalue = [433, 64]", fillcolor="#e99456"] ;
104 -> 105 ;
106 [label="entropy = 0.4\nsamples = 2115\nvalue = [1947, 168]", fillcolor="#e78c4a"] ;
104 -> 106 ;
107 [label="X[1] <= 45.5\nentropy = 0.62\nsamples = 4466\nvalue = [3771, 695]", fillcolor="#ea985d"] ;
91 -> 107 ;
108 [label="X[2] <= 50.5\nentropy = 0.07\nsamples = 112\nvalue = [111, 1]", fillcolor="#e5823b"] ;
107 -> 108 ;
109 [label="entropy = 0.0\nsamples = 99\nvalue = [99, 0]", fillcolor="#e58139"] ;
108 -> 109 ;
110 [label="entropy = 0.39\nsamples = 13\nvalue = [12, 1]", fillcolor="#e78c49"] ;
108 -> 110 ;
111 [label="X[1] <= 53.5\nentropy = 0.63\nsamples = 4354\nvalue = [3660, 694]", fillcolor="#ea995f"] ;
107 -> 111 ;
112 [label="X[4] <= 9.5\nentropy = 0.57\nsamples = 1185\nvalue = [1027, 158]", fillcolor="#e99457"] ;
111 -> 112 ;
113 [label="X[2] <= 52.5\nentropy = 0.59\nsamples = 1069\nvalue = [919, 150]", fillcolor="#e99659"] ;
112 -> 113 ;
114 [label="entropy = 0.59\nsamples = 1040\nvalue = [891, 149]", fillcolor="#e9965a"] ;
113 -> 114 ;
115 [label="entropy = 0.22\nsamples = 29\nvalue = [28, 1]", fillcolor="#e68640"] ;
113 -> 115 ;
116 [label="X[0] <= 8.5\nentropy = 0.36\nsamples = 116\nvalue = [108, 8]", fillcolor="#e78a48"] ;
112 -> 116 ;
117 [label="entropy = 0.52\nsamples = 52\nvalue = [46, 6]", fillcolor="#e89153"] ;
116 -> 117 ;
118 [label="entropy = 0.2\nsamples = 64\nvalue = [62, 2]", fillcolor="#e6853f"] ;
116 -> 118 ;
119 [label="X[1] <= 54.5\nentropy = 0.66\nsamples = 3169\nvalue = [2633, 536]", fillcolor="#ea9b61"] ;
111 -> 119 ;
120 [label="X[3] <= 1600.0\nentropy = 0.77\nsamples = 508\nvalue = [394, 114]", fillcolor="#eda572"] ;
119 -> 120 ;
121 [label="entropy = 0.87\nsamples = 233\nvalue = [166, 67]", fillcolor="#efb489"] ;
120 -> 121 ;
122 [label="entropy = 0.66\nsamples = 275\nvalue = [228, 47]", fillcolor="#ea9b62"] ;
120 -> 122 ;
123 [label="X[0] <= 8.5\nentropy = 0.63\nsamples = 2661\nvalue = [2239, 422]", fillcolor="#ea995e"] ;
119 -> 123 ;
124 [label="entropy = 0.57\nsamples = 1191\nvalue = [1029, 162]", fillcolor="#e99558"] ;
123 -> 124 ;
125 [label="entropy = 0.67\nsamples = 1470\nvalue = [1210, 260]", fillcolor="#eb9c64"] ;
123 -> 125 ;
126 [label="X[0] <= 13.5\nentropy = 0.9\nsamples = 2637\nvalue = [1797, 840]", fillcolor="#f1bc96"] ;
90 -> 126 ;
127 [label="X[0] <= 12.5\nentropy = 0.82\nsamples = 1928\nvalue = [1437, 491]", fillcolor="#eeac7d"] ;
126 -> 127 ;
128 [label="X[3] <= 29687.36\nentropy = 0.78\nsamples = 1522\nvalue = [1169, 353]", fillcolor="#eda775"] ;
127 -> 128 ;
129 [label="X[2] <= 5.5\nentropy = 0.79\nsamples = 1500\nvalue = [1147, 353]", fillcolor="#eda876"] ;
128 -> 129 ;
130 [label="X[4] <= 17.5\nentropy = 0.66\nsamples = 154\nvalue = [128, 26]", fillcolor="#ea9b61"] ;
129 -> 130 ;
131 [label="entropy = 0.62\nsamples = 142\nvalue = [120, 22]", fillcolor="#ea985d"] ;
130 -> 131 ;
132 [label="entropy = 0.92\nsamples = 12\nvalue = [8, 4]", fillcolor="#f2c09c"] ;
130 -> 132 ;
133 [label="X[2] <= 8.5\nentropy = 0.8\nsamples = 1346\nvalue = [1019, 327]", fillcolor="#eda979"] ;
129 -> 133 ;
134 [label="entropy = 0.94\nsamples = 90\nvalue = [58, 32]", fillcolor="#f3c7a6"] ;
133 -> 134 ;
135 [label="entropy = 0.79\nsamples = 1256\nvalue = [961, 295]", fillcolor="#eda876"] ;
133 -> 135 ;
136 [label="entropy = 0.0\nsamples = 22\nvalue = [22, 0]", fillcolor="#e58139"] ;
128 -> 136 ;
137 [label="X[2] <= 51.5\nentropy = 0.92\nsamples = 406\nvalue = [268, 138]", fillcolor="#f2c29f"] ;
127 -> 137 ;
138 [label="X[3] <= 1152.66\nentropy = 0.91\nsamples = 383\nvalue = [260, 123]", fillcolor="#f1bd97"] ;
137 -> 138 ;
139 [label="X[2] <= 44.5\nentropy = 0.97\nsamples = 136\nvalue = [82, 54]", fillcolor="#f6d4bb"] ;
138 -> 139 ;
140 [label="entropy = 0.99\nsamples = 121\nvalue = [69, 52]", fillcolor="#f9e0ce"] ;
139 -> 140 ;
141 [label="entropy = 0.57\nsamples = 15\nvalue = [13, 2]", fillcolor="#e99457"] ;
139 -> 141 ;
142 [label="X[1] <= 53.5\nentropy = 0.85\nsamples = 247\nvalue = [178, 69]", fillcolor="#efb286"] ;
138 -> 142 ;
143 [label="entropy = 0.65\nsamples = 48\nvalue = [40, 8]", fillcolor="#ea9a61"] ;
142 -> 143 ;
144 [label="entropy = 0.89\nsamples = 199\nvalue = [138, 61]", fillcolor="#f0b991"] ;
142 -> 144 ;
145 [label="X[1] <= 58.0\nentropy = 0.93\nsamples = 23\nvalue = [8, 15]", fillcolor="#a3d1f3"] ;
137 -> 145 ;
146 [label="entropy = 0.98\nsamples = 12\nvalue = [5, 7]", fillcolor="#c6e3f8"] ;
145 -> 146 ;
147 [label="entropy = 0.85\nsamples = 11\nvalue = [3, 8]", fillcolor="#83c2ef"] ;
145 -> 147 ;
148 [label="X[0] <= 19.5\nentropy = 1.0\nsamples = 709\nvalue = [360, 349]", fillcolor="#fefbf9"] ;
126 -> 148 ;
149 [label="X[0] <= 16.5\nentropy = 1.0\nsamples = 671\nvalue = [359, 312]", fillcolor="#fcefe5"] ;
148 -> 149 ;
150 [label="X[1] <= 59.5\nentropy = 0.99\nsamples = 554\nvalue = [316, 238]", fillcolor="#f9e0ce"] ;
149 -> 150 ;
151 [label="X[1] <= 51.5\nentropy = 1.0\nsamples = 320\nvalue = [166, 154]", fillcolor="#fdf6f1"] ;
150 -> 151 ;
152 [label="entropy = 0.98\nsamples = 133\nvalue = [78, 55]", fillcolor="#f7dac5"] ;
151 -> 152 ;
153 [label="entropy = 1.0\nsamples = 187\nvalue = [88, 99]", fillcolor="#e9f4fc"] ;
151 -> 153 ;
154 [label="X[3] <= 2296.93\nentropy = 0.94\nsamples = 234\nvalue = [150, 84]", fillcolor="#f4c8a8"] ;
150 -> 154 ;
155 [label="entropy = 1.0\nsamples = 58\nvalue = [30, 28]", fillcolor="#fdf7f2"] ;
154 -> 155 ;
156 [label="entropy = 0.9\nsamples = 176\nvalue = [120, 56]", fillcolor="#f1bc95"] ;
154 -> 156 ;
157 [label="X[1] <= 63.5\nentropy = 0.95\nsamples = 117\nvalue = [43, 74]", fillcolor="#acd6f4"] ;
149 -> 157 ;
158 [label="X[3] <= 6.15\nentropy = 0.9\nsamples = 100\nvalue = [32, 68]", fillcolor="#96cbf1"] ;
157 -> 158 ;
159 [label="entropy = 0.68\nsamples = 33\nvalue = [6, 27]", fillcolor="#65b3eb"] ;
158 -> 159 ;
160 [label="entropy = 0.96\nsamples = 67\nvalue = [26, 41]", fillcolor="#b7dbf5"] ;
158 -> 160 ;
161 [label="entropy = 0.94\nsamples = 17\nvalue = [11, 6]", fillcolor="#f3c6a5"] ;
157 -> 161 ;
162 [label="X[2] <= 21.5\nentropy = 0.18\nsamples = 38\nvalue = [1, 37]", fillcolor="#3ea0e6"] ;
148 -> 162 ;
163 [label="entropy = 0.44\nsamples = 11\nvalue = [1, 10]", fillcolor="#4da7e8"] ;
162 -> 163 ;
164 [label="entropy = 0.0\nsamples = 27\nvalue = [0, 27]", fillcolor="#399de5"] ;
162 -> 164 ;
}